#include "model_weights.h"

// Neural network weights for CIFAR-10 classifier
// Auto-generated from cifar10_rgb565_weights.bin

// Total weights: 145 floats (580 bytes)
const float model_weights_array[145] = {
    -0.05706149f, 0.26598522f, -0.00791162f, 0.23657882f, 0.30659097f, -0.38099506f, -0.08041979f, 0.11150958f, 
    -0.22952893f, -0.19980121f, 0.11432118f, 0.26490244f, -0.01592693f, -0.25298837f, -0.14557113f, -0.30369106f, 
    0.18813705f, 0.21235126f, -0.37865293f, -0.01505345f, -0.32406527f, 0.26977980f, -0.28254637f, 0.28156519f, 
    -0.37966880f, 0.01117702f, -0.18186311f, -0.37075666f, -0.53138721f, 0.60044247f, 0.38164505f, 0.09978192f, 
    0.56876278f, -0.54722929f, 0.04527365f, -0.49452654f, -0.78255868f, -0.59496045f, 0.41524410f, -0.29063234f, 
    0.73062772f, 0.19154939f, 0.80070895f, -0.13599339f, 0.31139529f, -0.00159732f, -0.00122444f, -0.00026318f, 
    0.00046832f, 0.00011971f, -0.00023643f, 0.98276877f, 0.99874014f, 0.99972194f, 1.00341547f, 0.98935825f, 
    0.99614376f, -0.01714466f, -0.00143633f, -0.00036480f, 0.00354716f, -0.01066731f, -0.00407633f, 0.08564939f, 
    0.09453031f, -0.03351343f, -0.02878567f, 0.01284903f, 0.00858133f, 0.77135289f, 0.77238595f, 0.77211434f, 
    0.77430069f, 0.77084929f, 0.77172691f, 0.22330971f, -0.49205804f, 0.46303093f, 0.28101239f, -0.01023117f, 
    0.38501146f, 0.49625835f, 0.43558544f, 0.16431218f, -0.55298710f, 0.10036459f, -0.14747646f, 0.30636653f, 
    0.51773375f, -0.32334608f, -0.52760327f, -0.15955809f, -0.29190314f, -0.08122077f, 0.35112631f, 0.12983458f, 
    -0.20853871f, -0.09567355f, -0.21450222f, 0.46604612f, -0.09066565f, 0.43256679f, -0.25562468f, -0.53790003f, 
    -0.10670022f, 0.28183708f, -0.08420888f, -0.02623196f, -0.07774016f, 0.17587808f, 0.26031220f, -0.20550561f, 
    0.17353389f, -0.14893024f, -0.12065263f, -0.01217257f, 0.30868867f, 0.02708131f, -0.52167761f, 0.05811146f, 
    -0.14695130f, 0.12166193f, 0.33400026f, -0.56712496f, -0.27686527f, -0.45306504f, 0.57736719f, -0.30602106f, 
    0.10043620f, 0.05546412f, -0.08443210f, 0.57002467f, -0.29262376f, -0.35119131f, 0.10649076f, 0.00535641f, 
    0.00203507f, -0.01637488f, -0.00590771f, 0.00897001f, -0.00204140f, -0.01505429f, -0.01193169f, 0.00652039f, 
    0.01146485f
};
